network unknown {
}
variable age {
    type discrete [ 3 ] { 0-45, 45-55, 55-100 };
}
variable anom_thalach {
    type discrete [ 2 ] { 0.0, 1.0 };
}
variable chol {
    type discrete [ 3 ] { 0-240, 240-260, 260-400 };
}
variable cp {
    type discrete [ 4 ] { 1.0, 2.0, 3.0, 4.0 };
}
variable exang {
    type discrete [ 2 ] { 0.0, 1.0 };
}
variable fbs {
    type discrete [ 2 ] { 0.0, 1.0 };
}
variable num {
    type discrete [ 2 ] { 0.0, 1.0 };
}
variable sex {
    type discrete [ 2 ] { 0.0, 1.0 };
}
variable trestbps {
    type discrete [ 3 ] { 0-120, 120-140, 140-300 };
}
probability ( age ) {
    table 0.2079207920792079, 0.29042904290429045, 0.5016501650165016 ;
}
probability ( anom_thalach | num ) {
    ( 0.0 ) 0.7378048780487805, 0.2621951219512195;
    ( 1.0 ) 0.8345323741007195, 0.16546762589928057;

}
probability ( chol | age, sex ) {
    ( 0-45, 0.0 ) 0.7222222222222222, 0.05555555555555555, 0.2222222222222222;
    ( 0-45, 1.0 ) 0.6222222222222222, 0.13333333333333333, 0.24444444444444444;
    ( 45-55, 0.0 ) 0.34615384615384615, 0.19230769230769232, 0.46153846153846156;
    ( 45-55, 1.0 ) 0.5161290322580645, 0.1935483870967742, 0.2903225806451613;
    ( 55-100, 0.0 ) 0.39622641509433965, 0.11320754716981132, 0.49056603773584906;
    ( 55-100, 1.0 ) 0.5252525252525253, 0.15151515151515152, 0.32323232323232326;

}
probability ( cp | num ) {
    ( 0.0 ) 0.0975609756097561, 0.25, 0.4146341463414634, 0.23780487804878048;
    ( 1.0 ) 0.050359712230215826, 0.06474820143884892, 0.12949640287769784, 0.7553956834532374;

}
probability ( exang | num ) {
    ( 0.0 ) 0.8597560975609756, 0.1402439024390244;
    ( 1.0 ) 0.45323741007194246, 0.5467625899280576;

}
probability ( fbs | age, sex ) {
    ( 0-45, 0.0 ) 0.9444444444444444, 0.05555555555555555;
    ( 0-45, 1.0 ) 0.9555555555555556, 0.044444444444444446;
    ( 45-55, 0.0 ) 0.9230769230769231, 0.07692307692307693;
    ( 45-55, 1.0 ) 0.8064516129032258, 0.1935483870967742;
    ( 55-100, 0.0 ) 0.8301886792452831, 0.16981132075471697;
    ( 55-100, 1.0 ) 0.8080808080808081, 0.1919191919191919;

}
probability ( num | chol, fbs ) {
    ( 0-240, 0.0 ) 0.6015037593984962, 0.39849624060150374;
    ( 0-240, 1.0 ) 0.6363636363636364, 0.36363636363636365;
    ( 240-260, 0.0 ) 0.5, 0.5;
    ( 240-260, 1.0 ) 0.4444444444444444, 0.5555555555555556;
    ( 260-400, 0.0 ) 0.48314606741573035, 0.5168539325842697;
    ( 260-400, 1.0 ) 0.35714285714285715, 0.6428571428571429;

}
probability ( sex ) {
    table 0.3201320132013201, 0.6798679867986799 ;
}
probability ( trestbps | num ) {
    ( 0.0 ) 0.36585365853658536, 0.4695121951219512, 0.16463414634146342;
    ( 1.0 ) 0.26618705035971224, 0.45323741007194246, 0.2805755395683453;

}
